<?xml version="1.0"?>
<opencv_storage>
<cascade>
  <stageType>BOOST</stageType>
  <featureType>HAAR</featureType>
  <height>24</height>
  <width>24</width>
  <stageParams>
    <boostType>GAB</boostType>
    <minHitRate>9.9500000476837158e-01</minHitRate>
    <maxFalseAlarm>5.0000000000000000e-01</maxFalseAlarm>
    <weightTrimRate>9.4999998807907104e-01</weightTrimRate>
    <maxDepth>1</maxDepth>
    <maxWeakCount>100</maxWeakCount></stageParams>
  <featureParams>
    <maxCatCount>0</maxCatCount>
    <featSize>1</featSize>
    <mode>BASIC</mode></featureParams>
  <stageNum>20</stageNum>
  <stages>
    <!-- stage 0 -->
    <_>
      <maxWeakCount>6</maxWeakCount>
      <stageThreshold>-1.2181079387664795e+00</stageThreshold>
      <weakClassifiers>
        <_>
          <internalNodes>
            0 -1 135 1.9085142761468887e-02</internalNodes>
          <leafValues>
            -7.9963237047195435e-01 5.9615385532379150e-01</leafValues></_>
        <_>
          <internalNodes>
            0 -1 138 -4.0403567254543304e-03</internalNodes>
          <leafValues>
            5.5861258506774902e-01 -5.5180126428604126e-01</leafValues></_>
        <_>
          <internalNodes>
            0 -1 95 -2.6883417740464211e-03</internalNodes>
          <leafValues>
            8.1034809350967407e-01 -2.8977444767951965e-01</leafValues></_>
        <_>
          <internalNodes>
            0 -1 69 1.0152697563171387e-02</internalNodes>
          <leafValues>
            -2.4431616067886353e-01 8.0901592969894409e-01</leafValues></_>
        <_>
          <internalNodes>
            0 -1 68 -1.4275012537837029e-02</internalNodes>
          <leafValues>
            8.9499318599700928e-01 -2.1362848579883575e-01</leafValues></_>
        <_>
          <internalNodes>
            0 -1 176 -2.3544125258922577e-02</internalNodes>
          <leafValues>
            8.9613020420074463e-01 -1.7228733003139496e-01</leafValues></_></weakClassifiers></_>
    <!-- stage 1 -->
    <_>
      <maxWeakCount>6</maxWeakCount>
      <stageThreshold>-1.2953379154205322e+00</stageThreshold>
      <weakClassifiers>
        <_>
          <internalNodes>
            0 -1 162 -3.7949062883853912e-02</internalNodes>
          <leafValues>
            3.4736841917037964e-01 -7.6663625240325928e-01</leafValues></_>
        <_>
          <internalNodes>
            0 -1 117 5.6785289198160172e-03</internalNodes>
          <leafValues>
            -3.9388617873191833e-01 7.0235443115234375e-01</leafValues></_>
        <_>
          <internalNodes>
            0 -1 178 4.6801995486021042e-03</internalNodes>
          <leafValues>
            -2.3993785679340363e-01 7.2441327571868896e-01</leafValues></_>
        <_>
          <internalNodes>
            0 -1 210 4.5252300333231688e-04</internalNodes>
          <leafValues>
            -2.4381153285503387e-01 7.0078915357589722e-01</leafValues></_>
        <_>
          <internalNodes>
            0 -1 180 -1.1541296262294054e-03</internalNodes>
          <leafValues>
            5.9717464447021484e-01 -3.0541291832923889e-01</leafValues></_>
        <_>
          <internalNodes>
            0 -1 194 -4.3736640363931656e-03</internalNodes>
          <leafValues>
            7.1073794364929199e-01 -2.4824070930480957e-01</leafValues></_></weakClassifiers></_>
    <!-- stage 2 -->
    <_>
      <maxWeakCount>9</maxWeakCount>
      <stageThreshold>-1.5180370807647705e+00</stageThreshold>
      <weakClassifiers>
        <_>
          <internalNodes>
            0 -1 114 2.0259382203221321e-02</internalNodes>
          <leafValues>
            -7.6108598709106445e-01 3.7931033968925476e-01</leafValues></_>
        <_>
          <internalNodes>
            0 -1 196 -1.7646491527557373e-02</internalNodes>
          <leafValues>
            7.4485617876052856e-01 -3.5780826210975647e-01</leafValues></_>
        <_>
          <internalNodes>
            0 -1 185 3.9938919246196747e-02</internalNodes>
          <leafValues>
            -1.8702752888202667e-01 8.1476628780364990e-01</leafValues></_>
        <_>
          <internalNodes>
            0 -1 214 1.4906093478202820e-02</internalNodes>
          <leafValues>
            -1.5513066947460175e-01 7.9193061590194702e-01</leafValues></_>
        <_>
          <internalNodes>
            0 -1 57 3.1363949179649353e-02</internalNodes>
          <leafValues>
            -1.4200119674205780e-01 8.6515361070632935e-01</leafValues></_>
        <_>
          <internalNodes>
            0 -1 81 8.0459583550691605e-03</internalNodes>
          <leafValues>
            -1.6812469065189362e-01 6.9289904832839966e-01</leafValues></_>
        <_>
          <internalNodes>
            0 -1 87 3.3388119190931320e-03</internalNodes>
          <leafValues>
            -1.8893791735172272e-01 5.9444582462310791e-01</leafValues></_>
        <_>
          <internalNodes>
            0 -1 38 2.8320893645286560e-02</internalNodes>
          <leafValues>
            -1.6292415559291840e-01 7.1571892499923706e-01</leafValues></_>
        <_>
          <internalNodes>
            0 -1 50 -2.5341637432575226e-02</internalNodes>
          <leafValues>
            6.0500335693359375e-01 -2.1479676663875580e-01</leafValues></_></weakClassifiers></_>
    <!-- stage 3 -->
    <_>
      <maxWeakCount>10</maxWeakCount>
      <stageThreshold>-1.5107052326202393e+00</stageThreshold>
      <weakClassifiers>
        <_>
          <internalNodes>
            0 -1 2 1.9433638453483582e-01</internalNodes>
          <leafValues>
            -7.6936936378479004e-01 5.6097561120986938e-01</leafValues></_>
        <_>
          <internalNodes>
            0 -1 65 -9.9308177828788757e-02</internalNodes>
          <leafValues>
            6.7344707250595093e-01 -4.0956237912178040e-01</leafValues></_>
        <_>
          <internalNodes>
            0 -1 40 -6.1234854161739349e-02</internalNodes>
          <leafValues>
            7.0310312509536743e-01 -2.3140268027782440e-01</leafValues></_>
        <_>
          <internalNodes>
            0 -1 5 -4.4052594900131226e-01</internalNodes>
          <leafValues>
            -9.3100535869598389e-01 1.8078526854515076e-01</leafValues></_>
        <_>
          <internalNodes>
            0 -1 163 -5.4781161248683929e-02</internalNodes>
          <leafValues>
            8.4246808290481567e-01 -1.7623144388198853e-01</leafValues></_>
        <_>
          <internalNodes>
            0 -1 186 -4.2877700179815292e-02</internalNodes>
          <leafValues>
            8.4012132883071899e-01 -1.6525600850582123e-01</leafValues></_>
        <_>
          <internalNodes>
            0 -1 169 1.2339258566498756e-02</internalNodes>
          <leafValues>
            -1.8528716266155243e-01 6.7456752061843872e-01</leafValues></_>
        <_>
          <internalNodes>
            0 -1 145 -4.5535109937191010e-02</internalNodes>
          <leafValues>
            8.3739227056503296e-01 -1.4790518581867218e-01</leafValues></_>
        <_>
          <internalNodes>
            0 -1 182 5.8439709246158600e-03</internalNodes>
          <leafValues>
            2.4624544382095337e-01 -6.6883438825607300e-01</leafValues></_>
        <_>
          <internalNodes>
            0 -1 239 -1.1790641583502293e-03</internalNodes>
          <leafValues>
            -7.3519361019134521e-01 2.0250344276428223e-01</leafValues></_></weakClassifiers></_>
    <!-- stage 4 -->
    <_>
      <maxWeakCount>8</maxWeakCount>
      <stageThreshold>-1.4273180961608887e+00</stageThreshold>
      <weakClassifiers>
        <_>
          <internalNodes>
            0 -1 10 2.4122372269630432e-01</internalNodes>
          <leafValues>
            -7.5022143125534058e-01 6.1904764175415039e-01</leafValues></_>
        <_>
          <internalNodes>
            0 -1 4 3.3429861068725586e-01</internalNodes>
          <leafValues>
            1.6554333269596100e-02 -8.4026747941970825e-01</leafValues></_>
        <_>
          <internalNodes>
            0 -1 232 -1.5079951845109463e-03</internalNodes>
          <leafValues>
            -5.8881521224975586e-01 1.4067097008228302e-01</leafValues></_>
        <_>
          <internalNodes>
            0 -1 16 -1.2225191295146942e-01</internalNodes>
          <leafValues>
            7.2098833322525024e-01 -1.5414549410343170e-01</leafValues></_>
        <_>
          <internalNodes>
            0 -1 233 -1.3998458161950111e-03</internalNodes>
          <leafValues>
            -5.9137785434722900e-01 2.1063020825386047e-01</leafValues></_>
        <_>
          <internalNodes>
            0 -1 149 -4.6679221093654633e-02</internalNodes>
          <leafValues>
            6.6640794277191162e-01 -1.6622631251811981e-01</leafValues></_>
        <_>
          <internalNodes>
            0 -1 148 3.7279173731803894e-02</internalNodes>
          <leafValues>
            -1.5083351731300354e-01 6.8136179447174072e-01</leafValues></_>
        <_>
          <internalNodes>
            0 -1 217 -4.0307072922587395e-03</internalNodes>
          <leafValues>
            -5.5646878480911255e-01 2.2826127707958221e-01</leafValues></_></weakClassifiers></_>
    <!-- stage 5 -->
    <_>
      <maxWeakCount>9</maxWeakCount>
      <stageThreshold>-1.8589861392974854e+00</stageThreshold>
      <weakClassifiers>
        <_>
          <internalNodes>
            0 -1 3 2.7419233322143555e-01</internalNodes>
          <leafValues>
            -7.5463372468948364e-01 7.9661017656326294e-01</leafValues></_>
        <_>
          <internalNodes>
            0 -1 4 -1.9533474743366241e-01</internalNodes>
          <leafValues>
            -7.0102328062057495e-01 2.1483886241912842e-01</leafValues></_>
        <_>
          <internalNodes>
            0 -1 18 -1.1068335920572281e-01</internalNodes>
          <leafValues>
            8.0792188644409180e-01 -1.9018688797950745e-01</leafValues></_>
        <_>
          <internalNodes>
            0 -1 0 1.3789357581117656e-05</internalNodes>
          <leafValues>
            -3.1509009003639221e-01 4.3384775519371033e-01</leafValues></_>
        <_>
          <internalNodes>
            0 -1 0 1.2076341081410646e-03</internalNodes>
          <leafValues>
            2.1423962712287903e-01 -7.9961258172988892e-01</leafValues></_>
        <_>
          <internalNodes>
            0 -1 6 2.3351562023162842e-01</internalNodes>
          <leafValues>
            2.6615911722183228e-01 -6.5069961547851563e-01</leafValues></_>
        <_>
          <internalNodes>
            0 -1 19 -1.7698335647583008e-01</internalNodes>
          <leafValues>
            -6.6430181264877319e-01 1.9797101616859436e-01</leafValues></_>
        <_>
          <internalNodes>
            0 -1 134 -7.7068366110324860e-02</internalNodes>
          <leafValues>
            6.1786156892776489e-01 -2.8594279289245605e-01</leafValues></_>
        <_>
          <internalNodes>
            0 -1 215 -1.3610710084321909e-05</internalNodes>
          <leafValues>
            4.6642073988914490e-01 -3.3201071619987488e-01</leafValues></_></weakClassifiers></_>
    <!-- stage 6 -->
    <_>
      <maxWeakCount>12</maxWeakCount>
      <stageThreshold>-1.6974446773529053e+00</stageThreshold>
      <weakClassifiers>
        <_>
          <internalNodes>
            0 -1 224 3.5502489656209946e-02</internalNodes>
          <leafValues>
            -7.1972316503524780e-01 6.6666668653488159e-01</leafValues></_>
        <_>
          <internalNodes>
            0 -1 156 -6.2154259532690048e-02</internalNodes>
          <leafValues>
            6.7308765649795532e-01 -2.9049107432365417e-01</leafValues></_>
        <_>
          <internalNodes>
            0 -1 126 1.6304515156662092e-05</internalNodes>
          <leafValues>
            -2.9038503766059875e-01 3.4981939196586609e-01</leafValues></_>
        <_>
          <internalNodes>
            0 -1 170 1.8667124211788177e-02</internalNodes>
          <leafValues>
            -2.2365732491016388e-01 4.6766918897628784e-01</leafValues></_>
        <_>
          <internalNodes>
            0 -1 183 -1.2417490324878599e-05</internalNodes>
          <leafValues>
            3.2526826858520508e-01 -2.6861795783042908e-01</leafValues></_>
        <_>
          <internalNodes>
            0 -1 200 8.6560752242803574e-03</internalNodes>
          <leafValues>
            1.8585768342018127e-01 -4.9064078927040100e-01</leafValues></_>
        <_>
          <internalNodes>
            0 -1 45 3.2997999340295792e-02</internalNodes>
          <leafValues>
            -1.0603104531764984e-01 6.7072725296020508e-01</leafValues></_>
        <_>
          <internalNodes>
            0 -1 209 -1.2417490324878599e-05</internalNodes>
          <leafValues>
            3.2047596573829651e-01 -2.8851082921028137e-01</leafValues></_>
        <_>
          <internalNodes>
            0 -1 82 -3.5361982882022858e-02</internalNodes>
          <leafValues>
            8.5558766126632690e-01 -1.2431082874536514e-01</leafValues></_>
        <_>
          <internalNodes>
            0 -1 14 7.1908952668309212e-04</internalNodes>
          <leafValues>
            1.6515734791755676e-01 -6.2861889600753784e-01</leafValues></_>
        <_>
          <internalNodes>
            0 -1 71 1.2462677659641486e-05</internalNodes>
          <leafValues>
            -2.7097910642623901e-01 3.5215547680854797e-01</leafValues></_>
        <_>
          <internalNodes>
            0 -1 116 -1.2014321982860565e-01</internalNodes>
          <leafValues>
            6.6488271951675415e-01 -1.5707984566688538e-01</leafValues></_></weakClassifiers></_>
    <!-- stage 7 -->
    <_>
      <maxWeakCount>13</maxWeakCount>
      <stageThreshold>-1.4029928445816040e+00</stageThreshold>
      <weakClassifiers>
        <_>
          <internalNodes>
            0 -1 118 1.1607868969440460e-01</internalNodes>
          <leafValues>
            -7.1255409717559814e-01 4.0540540218353271e-01</leafValues></_>
        <_>
          <internalNodes>
            0 -1 79 1.2417490324878599e-05</internalNodes>
          <leafValues>
            -4.1598924994468689e-01 1.4154206216335297e-01</leafValues></_>
        <_>
          <internalNodes>
            0 -1 171 -3.2815009035402909e-05</internalNodes>
          <leafValues>
            2.7237147092819214e-01 -2.7736052870750427e-01</leafValues></_>
        <_>
          <internalNodes>
            0 -1 101 -1.4883091673254967e-02</internalNodes>
          <leafValues>
            -7.9525148868560791e-01 9.2785574495792389e-02</leafValues></_>
        <_>
          <internalNodes>
            0 -1 109 1.3949209460406564e-05</internalNodes>
          <leafValues>
            -2.6713842153549194e-01 3.1036707758903503e-01</leafValues></_>
        <_>
          <internalNodes>
            0 -1 150 8.0826520919799805e-02</internalNodes>
          <leafValues>
            -1.2995170056819916e-01 5.8242851495742798e-01</leafValues></_>
        <_>
          <internalNodes>
            0 -1 24 4.9546211957931519e-02</internalNodes>
          <leafValues>
            -1.0427128523588181e-01 6.3389408588409424e-01</leafValues></_>
        <_>
          <internalNodes>
            0 -1 83 7.4305306188762188e-03</internalNodes>
          <leafValues>
            -1.5832805633544922e-01 4.4222715497016907e-01</leafValues></_>
        <_>
          <internalNodes>
            0 -1 49 3.1913947168504819e-05</internalNodes>
          <leafValues>
            -2.7626499533653259e-01 2.4862965941429138e-01</leafValues></_>
        <_>
          <internalNodes>
            0 -1 44 -2.6158727705478668e-02</internalNodes>
          <leafValues>
            -8.1364756822586060e-01 1.1469557881355286e-01</leafValues></_>
        <_>
          <internalNodes>
            0 -1 66 -8.7824212387204170e-03</internalNodes>
          <leafValues>
            3.4947037696838379e-01 -1.9876170158386230e-01</leafValues></_>
        <_>
          <internalNodes>
            0 -1 211 -1.4873449799779337e-05</internalNodes>
          <leafValues>
            2.8469783067703247e-01 -2.7223742008209229e-01</leafValues></_>
        <_>
          <internalNodes>
            0 -1 43 3.1221266835927963e-03</internalNodes>
          <leafValues>
            1.1995753645896912e-01 -6.8585675954818726e-01</leafValues></_></weakClassifiers></_>
    <!-- stage 8 -->
    <_>
      <maxWeakCount>13</maxWeakCount>
      <stageThreshold>-1.5274846553802490e+00</stageThreshold>
      <weakClassifiers>
        <_>
          <internalNodes>
            0 -1 14 1.7291939002461731e-05</internalNodes>
          <leafValues>
            -7.8173720836639404e-01 -3.6054420471191406e-01</leafValues></_>
        <_>
          <internalNodes>
            0 -1 151 1.8837885363609530e-05</internalNodes>
          <leafValues>
            -4.4537857174873352e-01 1.3733039796352386e-01</leafValues></_>
        <_>
          <internalNodes>
            0 -1 240 -1.4748738976777531e-05</internalNodes>
          <leafValues>
            3.1491658091545105e-01 -2.9176637530326843e-01</leafValues></_>
        <_>
          <internalNodes>
            0 -1 166 1.8335966160520911e-05</internalNodes>
          <leafValues>
            -2.6800563931465149e-01 3.0179738998413086e-01</leafValues></_>
        <_>
          <internalNodes>
            0 -1 218 -1.5074735529196914e-05</internalNodes>
          <leafValues>
            2.8609386086463928e-01 -2.7097043395042419e-01</leafValues></_>
        <_>
          <internalNodes>
            0 -1 88 1.2417490324878599e-05</internalNodes>
          <leafValues>
            -2.1118983626365662e-01 3.7834799289703369e-01</leafValues></_>
        <_>
          <internalNodes>
            0 -1 54 1.5369636457762681e-05</internalNodes>
          <leafValues>
            -2.3061965405941010e-01 3.3309331536293030e-01</leafValues></_>
        <_>
          <internalNodes>
            0 -1 129 -1.2462677659641486e-05</internalNodes>
          <leafValues>
            3.2253235578536987e-01 -2.3504562675952911e-01</leafValues></_>
        <_>
          <internalNodes>
            0 -1 140 -1.6869866158231162e-05</internalNodes>
          <leafValues>
            3.0337515473365784e-01 -2.3829714953899384e-01</leafValues></_>
        <_>
          <internalNodes>
            0 -1 41 1.4845300938759465e-05</internalNodes>
          <leafValues>
            -2.4830627441406250e-01 2.9158475995063782e-01</leafValues></_>
        <_>
          <internalNodes>
            0 -1 234 1.3949209460406564e-05</internalNodes>
          <leafValues>
            -2.1478091180324554e-01 3.3986744284629822e-01</leafValues></_>
        <_>
          <internalNodes>
            0 -1 235 -6.3707411754876375e-04</internalNodes>
          <leafValues>
            -6.3789087533950806e-01 1.2116344273090363e-01</leafValues></_>
        <_>
          <internalNodes>
            0 -1 130 1.4845300938759465e-05</internalNodes>
          <leafValues>
            -2.7050709724426270e-01 2.9767110943794250e-01</leafValues></_></weakClassifiers></_>
    <!-- stage 9 -->
    <_>
      <maxWeakCount>12</maxWeakCount>
      <stageThreshold>-1.4963802099227905e+00</stageThreshold>
      <weakClassifiers>
        <_>
          <internalNodes>
            0 -1 237 -1.2807719031115994e-05</internalNodes>
          <leafValues>
            -4.5066666603088379e-01 -7.8212976455688477e-01</leafValues></_>
        <_>
          <internalNodes>
            0 -1 32 -1.2107563670724630e-03</internalNodes>
          <leafValues>
            -8.4528505802154541e-01 -6.8306945264339447e-02</leafValues></_>
        <_>
          <internalNodes>
            0 -1 31 1.3825281712342985e-05</internalNodes>
          <leafValues>
            -2.2094768285751343e-01 3.5710361599922180e-01</leafValues></_>
        <_>
          <internalNodes>
            0 -1 104 1.6627442164462991e-05</internalNodes>
          <leafValues>
            -2.5340300798416138e-01 2.9513838887214661e-01</leafValues></_>
        <_>
          <internalNodes>
            0 -1 193 1.2073527614120394e-05</internalNodes>
          <leafValues>
            -2.0811715722084045e-01 3.1538429856300354e-01</leafValues></_>
        <_>
          <internalNodes>
            0 -1 76 1.5199383597064298e-05</internalNodes>
          <leafValues>
            -2.3602698743343353e-01 2.9039093852043152e-01</leafValues></_>
        <_>
          <internalNodes>
            0 -1 75 1.2462677659641486e-05</internalNodes>
          <leafValues>
            -2.7506208419799805e-01 2.8162598609924316e-01</leafValues></_>
        <_>
          <internalNodes>
            0 -1 34 1.2256504269316792e-03</internalNodes>
          <leafValues>
            1.8659931421279907e-01 -4.6969932317733765e-01</leafValues></_>
        <_>
          <internalNodes>
            0 -1 64 1.2417490324878599e-05</internalNodes>
          <leafValues>
            -2.6641389727592468e-01 2.7124044299125671e-01</leafValues></_>
        <_>
          <internalNodes>
            0 -1 56 1.3610710084321909e-05</internalNodes>
          <leafValues>
            -2.4114179611206055e-01 3.0376014113426208e-01</leafValues></_>
        <_>
          <internalNodes>
            0 -1 9 1.3756086118519306e-03</internalNodes>
          <leafValues>
            1.6161675751209259e-01 -4.5722970366477966e-01</leafValues></_>
        <_>
          <internalNodes>
            0 -1 188 -2.7411799877882004e-02</internalNodes>
          <leafValues>
            4.5513203740119934e-01 -1.6216434538364410e-01</leafValues></_></weakClassifiers></_>
    <!-- stage 10 -->
    <_>
      <maxWeakCount>10</maxWeakCount>
      <stageThreshold>-1.7883204221725464e+00</stageThreshold>
      <weakClassifiers>
        <_>
          <internalNodes>
            0 -1 1 1.8696022033691406e-01</internalNodes>
          <leafValues>
            -7.2807019948959351e-01 4.2307692766189575e-01</leafValues></_>
        <_>
          <internalNodes>
            0 -1 8 1.2468952918425202e-03</internalNodes>
          <leafValues>
            5.4663565009832382e-02 -7.1722292900085449e-01</leafValues></_>
        <_>
          <internalNodes>
            0 -1 29 -1.1623024474829435e-03</internalNodes>
          <leafValues>
            -8.5922753810882568e-01 1.3507090508937836e-01</leafValues></_>
        <_>
          <internalNodes>
            0 -1 76 1.2704879045486450e-03</internalNodes>
          <leafValues>
            1.7868894338607788e-01 -6.9706767797470093e-01</leafValues></_>
        <_>
          <internalNodes>
            0 -1 29 -1.2462677659641486e-05</internalNodes>
          <leafValues>
            5.3074729442596436e-01 -2.6657247543334961e-01</leafValues></_>
        <_>
          <internalNodes>
            0 -1 76 1.5199383597064298e-05</internalNodes>
          <leafValues>
            -3.0794239044189453e-01 4.7058400511741638e-01</leafValues></_>
        <_>
          <internalNodes>
            0 -1 31 -1.1936193332076073e-03</internalNodes>
          <leafValues>
            -7.1034216880798340e-01 1.3237644731998444e-01</leafValues></_>
        <_>
          <internalNodes>
            0 -1 31 7.3315098416060209e-04</internalNodes>
          <leafValues>
            1.7955291271209717e-01 -6.5356206893920898e-01</leafValues></_>
        <_>
          <internalNodes>
            0 -1 11 1.4873449799779337e-05</internalNodes>
          <leafValues>
            -3.3005839586257935e-01 3.4217709302902222e-01</leafValues></_>
        <_>
          <internalNodes>
            0 -1 11 1.1138918343931437e-03</internalNodes>
          <leafValues>
            1.9948558509349823e-01 -6.8179011344909668e-01</leafValues></_></weakClassifiers></_>
    <!-- stage 11 -->
    <_>
      <maxWeakCount>16</maxWeakCount>
      <stageThreshold>-1.4938282966613770e+00</stageThreshold>
      <weakClassifiers>
        <_>
          <internalNodes>
            0 -1 144 8.0886911600828171e-03</internalNodes>
          <leafValues>
            -7.6956522464752197e-01 -3.6764705181121826e-01</leafValues></_>
        <_>
          <internalNodes>
            0 -1 113 -3.6122258752584457e-03</internalNodes>
          <leafValues>
            3.1075760722160339e-01 -2.9304119944572449e-01</leafValues></_>
        <_>
          <internalNodes>
            0 -1 108 1.1051714420318604e-02</internalNodes>
          <leafValues>
            -1.4802181720733643e-01 5.2710396051406860e-01</leafValues></_>
        <_>
          <internalNodes>
            0 -1 36 7.9593213740736246e-04</internalNodes>
          <leafValues>
            1.6825397312641144e-01 -3.9959046244621277e-01</leafValues></_>
        <_>
          <internalNodes>
            0 -1 158 4.5314095914363861e-03</internalNodes>
          <leafValues>
            -1.1468914896249771e-01 5.1021909713745117e-01</leafValues></_>
        <_>
          <internalNodes>
            0 -1 238 1.0186512954533100e-03</internalNodes>
          <leafValues>
            8.9192420244216919e-02 -6.5266048908233643e-01</leafValues></_>
        <_>
          <internalNodes>
            0 -1 119 -3.0362224206328392e-03</internalNodes>
          <leafValues>
            5.0789475440979004e-01 -1.0310212522745132e-01</leafValues></_>
        <_>
          <internalNodes>
            0 -1 198 2.6797605678439140e-03</internalNodes>
          <leafValues>
            -1.2845399975776672e-01 4.2484885454177856e-01</leafValues></_>
        <_>
          <internalNodes>
            0 -1 51 -8.7522655725479126e-02</internalNodes>
          <leafValues>
            4.8415127396583557e-01 -1.1745684593915939e-01</leafValues></_>
        <_>
          <internalNodes>
            0 -1 165 1.6717089238227345e-05</internalNodes>
          <leafValues>
            -1.9976139068603516e-01 2.8941655158996582e-01</leafValues></_>
        <_>
          <internalNodes>
            0 -1 25 8.2348880823701620e-04</internalNodes>
          <leafValues>
            1.2175340205430984e-01 -4.6055433154106140e-01</leafValues></_>
        <_>
          <internalNodes>
            0 -1 199 -4.0113553404808044e-03</internalNodes>
          <leafValues>
            3.4598073363304138e-01 -1.6310761868953705e-01</leafValues></_>
        <_>
          <internalNodes>
            0 -1 137 3.0452923383563757e-03</internalNodes>
          <leafValues>
            -1.6743186116218567e-01 3.4094217419624329e-01</leafValues></_>
        <_>
          <internalNodes>
            0 -1 67 2.0564582198858261e-02</internalNodes>
          <leafValues>
            8.6564488708972931e-02 -7.0965886116027832e-01</leafValues></_>
        <_>
          <internalNodes>
            0 -1 223 1.7545994371175766e-02</internalNodes>
          <leafValues>
            -1.4587841928005219e-01 4.1011044383049011e-01</leafValues></_>
        <_>
          <internalNodes>
            0 -1 92 -4.2888969182968140e-02</internalNodes>
          <leafValues>
            -4.5339518785476685e-01 1.2277753651142120e-01</leafValues></_></weakClassifiers></_>
    <!-- stage 12 -->
    <_>
      <maxWeakCount>19</maxWeakCount>
      <stageThreshold>-1.4057025909423828e+00</stageThreshold>
      <weakClassifiers>
        <_>
          <internalNodes>
            0 -1 107 -5.3663235157728195e-02</internalNodes>
          <leafValues>
            6.9230771064758301e-01 -6.9296014308929443e-01</leafValues></_>
        <_>
          <internalNodes>
            0 -1 62 -2.8418251895345747e-04</internalNodes>
          <leafValues>
            -4.2828637361526489e-01 1.3803916983306408e-02</leafValues></_>
        <_>
          <internalNodes>
            0 -1 123 -4.3394081294536591e-03</internalNodes>
          <leafValues>
            3.0325683951377869e-01 -1.6708561778068542e-01</leafValues></_>
        <_>
          <internalNodes>
            0 -1 205 -1.4951295452192426e-04</internalNodes>
          <leafValues>
            -3.3689111471176147e-01 1.6796803474426270e-01</leafValues></_>
        <_>
          <internalNodes>
            0 -1 98 -2.7061849832534790e-03</internalNodes>
          <leafValues>
            3.3455923199653625e-01 -1.3843041658401489e-01</leafValues></_>
        <_>
          <internalNodes>
            0 -1 103 -6.4367554150521755e-03</internalNodes>
          <leafValues>
            3.6213746666908264e-01 -1.4861804246902466e-01</leafValues></_>
        <_>
          <internalNodes>
            0 -1 235 -6.4157496672123671e-04</internalNodes>
          <leafValues>
            -5.2153074741363525e-01 1.1194923520088196e-01</leafValues></_>
        <_>
          <internalNodes>
            0 -1 141 -8.3864666521549225e-03</internalNodes>
          <leafValues>
            -4.0478831529617310e-01 1.0170907527208328e-01</leafValues></_>
        <_>
          <internalNodes>
            0 -1 133 7.0293848402798176e-03</internalNodes>
          <leafValues>
            -8.1836335361003876e-02 6.6065073013305664e-01</leafValues></_>
        <_>
          <internalNodes>
            0 -1 48 -1.1771192657761276e-04</internalNodes>
          <leafValues>
            -2.9546105861663818e-01 1.6150665283203125e-01</leafValues></_>
        <_>
          <internalNodes>
            0 -1 125 2.7052019722759724e-03</internalNodes>
          <leafValues>
            -1.6602540016174316e-01 2.7565696835517883e-01</leafValues></_>
        <_>
          <internalNodes>
            0 -1 181 3.2565020956099033e-03</internalNodes>
          <leafValues>
            -7.9855613410472870e-02 5.7712733745574951e-01</leafValues></_>
        <_>
          <internalNodes>
            0 -1 15 1.4819357311353087e-03</internalNodes>
          <leafValues>
            6.9725230336189270e-02 -7.7809864282608032e-01</leafValues></_>
        <_>
          <internalNodes>
            0 -1 143 -1.4857546193525195e-04</internalNodes>
          <leafValues>
            -2.9559463262557983e-01 1.3963784277439117e-01</leafValues></_>
        <_>
          <internalNodes>
            0 -1 28 -1.8749207258224487e-02</internalNodes>
          <leafValues>
            6.8157571554183960e-01 -7.2037413716316223e-02</leafValues></_>
        <_>
          <internalNodes>
            0 -1 29 -1.1519042309373617e-03</internalNodes>
          <leafValues>
            -7.5024783611297607e-01 7.5704418122768402e-02</leafValues></_>
        <_>
          <internalNodes>
            0 -1 160 1.8897813279181719e-03</internalNodes>
          <leafValues>
            -2.0670272409915924e-01 2.3394662141799927e-01</leafValues></_>
        <_>
          <internalNodes>
            0 -1 155 -1.6475118696689606e-02</internalNodes>
          <leafValues>
            5.3890091180801392e-01 -8.6492307484149933e-02</leafValues></_>
        <_>
          <internalNodes>
            0 -1 222 -3.2773539423942566e-03</internalNodes>
          <leafValues>
            -8.3298140764236450e-01 6.4132355153560638e-02</leafValues></_></weakClassifiers></_>
    <!-- stage 13 -->
    <_>
      <maxWeakCount>21</maxWeakCount>
      <stageThreshold>-1.4427949190139771e+00</stageThreshold>
      <weakClassifiers>
        <_>
          <internalNodes>
            0 -1 121 -2.1758195012807846e-02</internalNodes>
          <leafValues>
            1. -6.8918919563293457e-01</leafValues></_>
        <_>
          <internalNodes>
            0 -1 89 5.8345973957329988e-04</internalNodes>
          <leafValues>
            -3.6920186132192612e-02 -5.9286928176879883e-01</leafValues></_>
        <_>
          <internalNodes>
            0 -1 30 6.0594803653657436e-04</internalNodes>
          <leafValues>
            1.0376775264739990e-01 -4.5147943496704102e-01</leafValues></_>
        <_>
          <internalNodes>
            0 -1 91 5.9426752850413322e-03</internalNodes>
          <leafValues>
            -1.1358021944761276e-01 3.9501443505287170e-01</leafValues></_>
        <_>
          <internalNodes>
            0 -1 206 6.6036952193826437e-04</internalNodes>
          <leafValues>
            1.5490122139453888e-01 -3.3661824464797974e-01</leafValues></_>
        <_>
          <internalNodes>
            0 -1 207 -5.2855617832392454e-04</internalNodes>
          <leafValues>
            -4.0821772813796997e-01 1.3997702300548553e-01</leafValues></_>
        <_>
          <internalNodes>
            0 -1 77 4.9880181904882193e-04</internalNodes>
          <leafValues>
            1.4821946620941162e-01 -3.2082378864288330e-01</leafValues></_>
        <_>
          <internalNodes>
            0 -1 204 4.0289245545864105e-02</internalNodes>
          <leafValues>
            6.8622209131717682e-02 -7.1621310710906982e-01</leafValues></_>
        <_>
          <internalNodes>
            0 -1 31 5.6069012498483062e-04</internalNodes>
          <leafValues>
            9.2744380235671997e-02 -4.2574101686477661e-01</leafValues></_>
        <_>
          <internalNodes>
            0 -1 208 4.8298882320523262e-03</internalNodes>
          <leafValues>
            -1.2112016230821609e-01 3.7620049715042114e-01</leafValues></_>
        <_>
          <internalNodes>
            0 -1 55 2.5093678385019302e-02</internalNodes>
          <leafValues>
            -1.6391125321388245e-01 2.8173473477363586e-01</leafValues></_>
        <_>
          <internalNodes>
            0 -1 70 -3.1418267637491226e-02</internalNodes>
          <leafValues>
            4.9207937717437744e-01 -8.9981786906719208e-02</leafValues></_>
        <_>
          <internalNodes>
            0 -1 124 4.8053199425339699e-03</internalNodes>
          <leafValues>
            -1.3499851524829865e-01 3.4499710798263550e-01</leafValues></_>
        <_>
          <internalNodes>
            0 -1 33 -1.0660155676305294e-03</internalNodes>
          <leafValues>
            -4.1116330027580261e-01 1.3026267290115356e-01</leafValues></_>
        <_>
          <internalNodes>
            0 -1 132 2.3696264252066612e-03</internalNodes>
          <leafValues>
            4.4775035232305527e-02 -8.7256824970245361e-01</leafValues></_>
        <_>
          <internalNodes>
            0 -1 84 4.4990647584199905e-03</internalNodes>
          <leafValues>
            -1.9631053507328033e-01 2.4022941291332245e-01</leafValues></_>
        <_>
          <internalNodes>
            0 -1 219 -3.8187796599231660e-04</internalNodes>
          <leafValues>
            -2.2244727611541748e-01 2.2046773135662079e-01</leafValues></_>
        <_>
          <internalNodes>
            0 -1 230 1.1604469364101533e-05</internalNodes>
          <leafValues>
            -2.2651451826095581e-01 2.3070366680622101e-01</leafValues></_>
        <_>
          <internalNodes>
            0 -1 72 5.2073903381824493e-02</internalNodes>
          <leafValues>
            5.1194991916418076e-02 -9.1290515661239624e-01</leafValues></_>
        <_>
          <internalNodes>
            0 -1 53 -4.1334287379868329e-04</internalNodes>
          <leafValues>
            -5.2358883619308472e-01 8.1765472888946533e-02</leafValues></_>
        <_>
          <internalNodes>
            0 -1 97 1.4586250763386488e-03</internalNodes>
          <leafValues>
            -1.9650620222091675e-01 2.5993973016738892e-01</leafValues></_></weakClassifiers></_>
    <!-- stage 14 -->
    <_>
      <maxWeakCount>15</maxWeakCount>
      <stageThreshold>-1.4825153350830078e+00</stageThreshold>
      <weakClassifiers>
        <_>
          <internalNodes>
            0 -1 7 4.4286525249481201e-01</internalNodes>
          <leafValues>
            -7.1329277753829956e-01 3.1707316637039185e-01</leafValues></_>
        <_>
          <internalNodes>
            0 -1 236 1.8839451950043440e-03</internalNodes>
          <leafValues>
            -3.1120842322707176e-02 -6.2622523307800293e-01</leafValues></_>
        <_>
          <internalNodes>
            0 -1 61 -1.2831501662731171e-02</internalNodes>
          <leafValues>
            3.2822108268737793e-01 -2.0434157550334930e-01</leafValues></_>
        <_>
          <internalNodes>
            0 -1 225 -6.4941751770675182e-04</internalNodes>
          <leafValues>
            4.6582853794097900e-01 -1.3216623663902283e-01</leafValues></_>
        <_>
          <internalNodes>
            0 -1 159 6.1135716736316681e-02</internalNodes>
          <leafValues>
            8.6139082908630371e-02 -7.8203183412551880e-01</leafValues></_>
        <_>
          <internalNodes>
            0 -1 85 3.2810129225254059e-02</internalNodes>
          <leafValues>
            8.0110162496566772e-02 -8.1523656845092773e-01</leafValues></_>
        <_>
          <internalNodes>
            0 -1 147 8.7321519851684570e-02</internalNodes>
          <leafValues>
            8.2391038537025452e-02 -8.8636797666549683e-01</leafValues></_>
        <_>
          <internalNodes>
            0 -1 53 3.9471115451306105e-04</internalNodes>
          <leafValues>
            1.3453273475170135e-01 -4.5792055130004883e-01</leafValues></_>
        <_>
          <internalNodes>
            0 -1 197 2.4425890296697617e-03</internalNodes>
          <leafValues>
            -9.6809498965740204e-02 7.2471433877944946e-01</leafValues></_>
        <_>
          <internalNodes>
            0 -1 128 1.0898482985794544e-02</internalNodes>
          <leafValues>
            1.1080460995435715e-01 -6.6721552610397339e-01</leafValues></_>
        <_>
          <internalNodes>
            0 -1 172 8.4811844862997532e-04</internalNodes>
          <leafValues>
            -1.5386740863323212e-01 4.5386388897895813e-01</leafValues></_>
        <_>
          <internalNodes>
            0 -1 228 6.7560728639364243e-03</internalNodes>
          <leafValues>
            1.5139089524745941e-01 -3.9976349472999573e-01</leafValues></_>
        <_>
          <internalNodes>
            0 -1 106 2.0099834073334932e-03</internalNodes>
          <leafValues>
            -1.0227533429861069e-01 6.5389353036880493e-01</leafValues></_>
        <_>
          <internalNodes>
            0 -1 241 8.8705951347947121e-03</internalNodes>
          <leafValues>
            1.4429594576358795e-01 -5.1810759305953979e-01</leafValues></_>
        <_>
          <internalNodes>
            0 -1 139 -8.9716573711484671e-04</internalNodes>
          <leafValues>
            4.2924013733863831e-01 -1.7590263485908508e-01</leafValues></_></weakClassifiers></_>
    <!-- stage 15 -->
    <_>
      <maxWeakCount>15</maxWeakCount>
      <stageThreshold>-1.6127225160598755e+00</stageThreshold>
      <weakClassifiers>
        <_>
          <internalNodes>
            0 -1 216 -9.9136596545577049e-03</internalNodes>
          <leafValues>
            2.7272728085517883e-01 -7.1428573131561279e-01</leafValues></_>
        <_>
          <internalNodes>
            0 -1 115 8.6122695356607437e-03</internalNodes>
          <leafValues>
            -2.8448945283889771e-01 4.4559192657470703e-01</leafValues></_>
        <_>
          <internalNodes>
            0 -1 154 8.7748246733099222e-04</internalNodes>
          <leafValues>
            1.5078297257423401e-01 -4.7104859352111816e-01</leafValues></_>
        <_>
          <internalNodes>
            0 -1 191 2.3821934883017093e-04</internalNodes>
          <leafValues>
            1.6330206394195557e-01 -3.9609059691429138e-01</leafValues></_>
        <_>
          <internalNodes>
            0 -1 20 1.9066298846155405e-03</internalNodes>
          <leafValues>
            1.5025575459003448e-01 -5.1443427801132202e-01</leafValues></_>
        <_>
          <internalNodes>
            0 -1 37 8.0612404271960258e-03</internalNodes>
          <leafValues>
            -1.1987691372632980e-01 6.0196220874786377e-01</leafValues></_>
        <_>
          <internalNodes>
            0 -1 35 -1.1326025240123272e-02</internalNodes>
          <leafValues>
            6.2411963939666748e-01 -1.0408645123243332e-01</leafValues></_>
        <_>
          <internalNodes>
            0 -1 26 1.9448688253760338e-03</internalNodes>
          <leafValues>
            1.2658628821372986e-01 -4.8382222652435303e-01</leafValues></_>
        <_>
          <internalNodes>
            0 -1 173 -6.7873476073145866e-03</internalNodes>
          <leafValues>
            4.9973618984222412e-01 -1.1305470764636993e-01</leafValues></_>
        <_>
          <internalNodes>
            0 -1 12 3.4242408582940698e-04</internalNodes>
          <leafValues>
            1.5063451230525970e-01 -4.2156517505645752e-01</leafValues></_>
        <_>
          <internalNodes>
            0 -1 12 -7.2102918056771159e-04</internalNodes>
          <leafValues>
            -5.2045261859893799e-01 1.3574779033660889e-01</leafValues></_>
        <_>
          <internalNodes>
            0 -1 94 -5.6638633832335472e-03</internalNodes>
          <leafValues>
            6.5003883838653564e-01 -1.1177784949541092e-01</leafValues></_>
        <_>
          <internalNodes>
            0 -1 131 -3.2102563418447971e-03</internalNodes>
          <leafValues>
            -4.7602143883705139e-01 1.4833530783653259e-01</leafValues></_>
        <_>
          <internalNodes>
            0 -1 157 -7.6057631522417068e-03</internalNodes>
          <leafValues>
            5.1465743780136108e-01 -1.3251334428787231e-01</leafValues></_>
        <_>
          <internalNodes>
            0 -1 192 -2.0416059996932745e-03</internalNodes>
          <leafValues>
            -5.8608883619308472e-01 1.2294147163629532e-01</leafValues></_></weakClassifiers></_>
    <!-- stage 16 -->
    <_>
      <maxWeakCount>17</maxWeakCount>
      <stageThreshold>-1.3879259824752808e+00</stageThreshold>
      <weakClassifiers>
        <_>
          <internalNodes>
            0 -1 111 4.2133379727602005e-02</internalNodes>
          <leafValues>
            -7.0460468530654907e-01 7.3170728981494904e-02</leafValues></_>
        <_>
          <internalNodes>
            0 -1 63 -1.3070276379585266e-01</internalNodes>
          <leafValues>
            3.8425785303115845e-01 -2.4452267587184906e-01</leafValues></_>
        <_>
          <internalNodes>
            0 -1 153 6.2362966127693653e-04</internalNodes>
          <leafValues>
            1.1077571660280228e-01 -4.8747918009757996e-01</leafValues></_>
        <_>
          <internalNodes>
            0 -1 122 -4.0007305145263672e-01</internalNodes>
          <leafValues>
            -6.8729889392852783e-01 6.8730540573596954e-02</leafValues></_>
        <_>
          <internalNodes>
            0 -1 227 -7.6209111139178276e-03</internalNodes>
          <leafValues>
            -9.4741344451904297e-01 9.1945394873619080e-02</leafValues></_>
        <_>
          <internalNodes>
            0 -1 27 -1.1749737896025181e-03</internalNodes>
          <leafValues>
            -4.5361125469207764e-01 7.9062134027481079e-02</leafValues></_>
        <_>
          <internalNodes>
            0 -1 105 -4.8232628032565117e-03</internalNodes>
          <leafValues>
            3.5298991203308105e-01 -1.4465020596981049e-01</leafValues></_>
        <_>
          <internalNodes>
            0 -1 42 2.7711505535990000e-03</internalNodes>
          <leafValues>
            9.4811663031578064e-02 -4.8710209131240845e-01</leafValues></_>
        <_>
          <internalNodes>
            0 -1 96 -3.3428021706640720e-03</internalNodes>
          <leafValues>
            2.5818577408790588e-01 -1.8380609154701233e-01</leafValues></_>
        <_>
          <internalNodes>
            0 -1 179 1.8615834414958954e-02</internalNodes>
          <leafValues>
            -9.3677423894405365e-02 5.3211855888366699e-01</leafValues></_>
        <_>
          <internalNodes>
            0 -1 212 2.5398636353202164e-04</internalNodes>
          <leafValues>
            1.4742104709148407e-01 -3.6329141259193420e-01</leafValues></_>
        <_>
          <internalNodes>
            0 -1 195 -1.4986118301749229e-02</internalNodes>
          <leafValues>
            3.8685035705566406e-01 -1.2798094749450684e-01</leafValues></_>
        <_>
          <internalNodes>
            0 -1 93 1.7972655594348907e-02</internalNodes>
          <leafValues>
            -1.3327056169509888e-01 3.5328564047813416e-01</leafValues></_>
        <_>
          <internalNodes>
            0 -1 23 1.3725219294428825e-02</internalNodes>
          <leafValues>
            7.0226579904556274e-02 -7.3919099569320679e-01</leafValues></_>
        <_>
          <internalNodes>
            0 -1 58 5.7829506695270538e-03</internalNodes>
          <leafValues>
            -1.9456678628921509e-01 2.4061308801174164e-01</leafValues></_>
        <_>
          <internalNodes>
            0 -1 47 6.3290223479270935e-02</internalNodes>
          <leafValues>
            -7.3810502886772156e-02 6.5367823839187622e-01</leafValues></_>
        <_>
          <internalNodes>
            0 -1 22 -2.9361024498939514e-02</internalNodes>
          <leafValues>
            4.3314754962921143e-01 -1.1497590690851212e-01</leafValues></_></weakClassifiers></_>
    <!-- stage 17 -->
    <_>
      <maxWeakCount>16</maxWeakCount>
      <stageThreshold>-1.3105193376541138e+00</stageThreshold>
      <weakClassifiers>
        <_>
          <internalNodes>
            0 -1 13 1.0182617232203484e-02</internalNodes>
          <leafValues>
            -7.2567194700241089e-01 -2.2123894095420837e-01</leafValues></_>
        <_>
          <internalNodes>
            0 -1 146 -2.9126482550054789e-03</internalNodes>
          <leafValues>
            1.8952620029449463e-01 -3.2310655713081360e-01</leafValues></_>
        <_>
          <internalNodes>
            0 -1 90 -1.4666059054434299e-02</internalNodes>
          <leafValues>
            2.5913196802139282e-01 -2.1085256338119507e-01</leafValues></_>
        <_>
          <internalNodes>
            0 -1 175 4.0659140795469284e-03</internalNodes>
          <leafValues>
            -1.5085795521736145e-01 3.9090967178344727e-01</leafValues></_>
        <_>
          <internalNodes>
            0 -1 231 5.9684850275516510e-03</internalNodes>
          <leafValues>
            -1.2674796581268311e-01 4.4724783301353455e-01</leafValues></_>
        <_>
          <internalNodes>
            0 -1 74 2.7515697292983532e-03</internalNodes>
          <leafValues>
            -1.9724236428737640e-01 2.9338580369949341e-01</leafValues></_>
        <_>
          <internalNodes>
            0 -1 184 9.8835211247205734e-03</internalNodes>
          <leafValues>
            6.4668439328670502e-02 -8.6030101776123047e-01</leafValues></_>
        <_>
          <internalNodes>
            0 -1 39 -1.4980699052102864e-04</internalNodes>
          <leafValues>
            -3.0349352955818176e-01 1.6026186943054199e-01</leafValues></_>
        <_>
          <internalNodes>
            0 -1 100 9.9215318914502859e-04</internalNodes>
          <leafValues>
            -1.8136662244796753e-01 2.8380820155143738e-01</leafValues></_>
        <_>
          <internalNodes>
            0 -1 177 -1.2784285936504602e-03</internalNodes>
          <leafValues>
            2.9247215390205383e-01 -1.7594885826110840e-01</leafValues></_>
        <_>
          <internalNodes>
            0 -1 187 -4.6117003075778484e-03</internalNodes>
          <leafValues>
            -9.1702848672866821e-01 5.7158883661031723e-02</leafValues></_>
        <_>
          <internalNodes>
            0 -1 229 -8.9232791215181351e-03</internalNodes>
          <leafValues>
            4.8015674948692322e-01 -1.3029116392135620e-01</leafValues></_>
        <_>
          <internalNodes>
            0 -1 110 -3.8022263906896114e-03</internalNodes>
          <leafValues>
            -4.1816681623458862e-01 1.3954591751098633e-01</leafValues></_>
        <_>
          <internalNodes>
            0 -1 136 2.0769368857145309e-03</internalNodes>
          <leafValues>
            -1.6356797516345978e-01 3.5118529200553894e-01</leafValues></_>
        <_>
          <internalNodes>
            0 -1 86 -8.2613283302634954e-04</internalNodes>
          <leafValues>
            2.7006229758262634e-01 -2.0720326900482178e-01</leafValues></_>
        <_>
          <internalNodes>
            0 -1 99 -3.6606542766094208e-02</internalNodes>
          <leafValues>
            4.8079654574394226e-01 -1.0457545518875122e-01</leafValues></_></weakClassifiers></_>
    <!-- stage 18 -->
    <_>
      <maxWeakCount>14</maxWeakCount>
      <stageThreshold>-1.3977212905883789e+00</stageThreshold>
      <weakClassifiers>
        <_>
          <internalNodes>
            0 -1 167 -5.9812730178236961e-03</internalNodes>
          <leafValues>
            -2.7607360482215881e-01 -7.4149662256240845e-01</leafValues></_>
        <_>
          <internalNodes>
            0 -1 102 4.9705631099641323e-03</internalNodes>
          <leafValues>
            -2.8396806120872498e-01 3.5294526815414429e-01</leafValues></_>
        <_>
          <internalNodes>
            0 -1 164 -6.1012483201920986e-03</internalNodes>
          <leafValues>
            4.7741797566413879e-01 -1.2958490848541260e-01</leafValues></_>
        <_>
          <internalNodes>
            0 -1 21 5.2348062396049500e-02</internalNodes>
          <leafValues>
            9.7671434283256531e-02 -6.7470246553421021e-01</leafValues></_>
        <_>
          <internalNodes>
            0 -1 46 -9.2617620248347521e-04</internalNodes>
          <leafValues>
            -5.2798581123352051e-01 1.5082658827304840e-01</leafValues></_>
        <_>
          <internalNodes>
            0 -1 80 -7.0708617568016052e-03</internalNodes>
          <leafValues>
            3.8603654503822327e-01 -1.6535262763500214e-01</leafValues></_>
        <_>
          <internalNodes>
            0 -1 60 -9.1409246670082211e-04</internalNodes>
          <leafValues>
            -5.0197535753250122e-01 1.1202517896890640e-01</leafValues></_>
        <_>
          <internalNodes>
            0 -1 189 -5.5354334414005280e-02</internalNodes>
          <leafValues>
            6.9699364900588989e-01 -7.0963531732559204e-02</leafValues></_>
        <_>
          <internalNodes>
            0 -1 213 -2.2692815400660038e-04</internalNodes>
          <leafValues>
            -3.1891763210296631e-01 1.8219125270843506e-01</leafValues></_>
        <_>
          <internalNodes>
            0 -1 59 3.1529203057289124e-02</internalNodes>
          <leafValues>
            -1.4821630716323853e-01 3.6977541446685791e-01</leafValues></_>
        <_>
          <internalNodes>
            0 -1 73 4.5807301066815853e-03</internalNodes>
          <leafValues>
            -1.1548139899969101e-01 4.5913580060005188e-01</leafValues></_>
        <_>
          <internalNodes>
            0 -1 52 -8.1469779834151268e-03</internalNodes>
          <leafValues>
            4.6700748801231384e-01 -1.0010901093482971e-01</leafValues></_>
        <_>
          <internalNodes>
            0 -1 127 -1.9602822139859200e-03</internalNodes>
          <leafValues>
            3.4426042437553406e-01 -1.4624272286891937e-01</leafValues></_>
        <_>
          <internalNodes>
            0 -1 220 6.9525430444628000e-04</internalNodes>
          <leafValues>
            1.2692339718341827e-01 -4.2958906292915344e-01</leafValues></_></weakClassifiers></_>
    <!-- stage 19 -->
    <_>
      <maxWeakCount>16</maxWeakCount>
      <stageThreshold>-1.5996290445327759e+00</stageThreshold>
      <weakClassifiers>
        <_>
          <internalNodes>
            0 -1 112 1.1048400774598122e-02</internalNodes>
          <leafValues>
            -7.1701389551162720e-01 4.4999998807907104e-01</leafValues></_>
        <_>
          <internalNodes>
            0 -1 203 1.8340756651014090e-03</internalNodes>
          <leafValues>
            2.3108659312129021e-02 -6.0052239894866943e-01</leafValues></_>
        <_>
          <internalNodes>
            0 -1 202 -8.1562856212258339e-04</internalNodes>
          <leafValues>
            -5.2757018804550171e-01 1.5129354596138000e-01</leafValues></_>
        <_>
          <internalNodes>
            0 -1 17 1.4981161803007126e-02</internalNodes>
          <leafValues>
            -1.7127117514610291e-01 4.5204466581344604e-01</leafValues></_>
        <_>
          <internalNodes>
            0 -1 78 -9.6927229315042496e-03</internalNodes>
          <leafValues>
            -5.0456380844116211e-01 1.6198265552520752e-01</leafValues></_>
        <_>
          <internalNodes>
            0 -1 168 -5.3851688280701637e-03</internalNodes>
          <leafValues>
            -4.9217697978019714e-01 1.5150818228721619e-01</leafValues></_>
        <_>
          <internalNodes>
            0 -1 120 -6.5118359634652734e-04</internalNodes>
          <leafValues>
            -4.2612674832344055e-01 1.7379884421825409e-01</leafValues></_>
        <_>
          <internalNodes>
            0 -1 142 -4.2014913633465767e-03</internalNodes>
          <leafValues>
            5.9321594238281250e-01 -1.3741242885589600e-01</leafValues></_>
        <_>
          <internalNodes>
            0 -1 161 -6.8896682932972908e-03</internalNodes>
          <leafValues>
            6.7477118968963623e-01 -8.4630481898784637e-02</leafValues></_>
        <_>
          <internalNodes>
            0 -1 190 2.0560184493660927e-03</internalNodes>
          <leafValues>
            1.8030297756195068e-01 -4.2983028292655945e-01</leafValues></_>
        <_>
          <internalNodes>
            0 -1 201 -1.2693337630480528e-03</internalNodes>
          <leafValues>
            -5.0476300716400146e-01 1.2779590487480164e-01</leafValues></_>
        <_>
          <internalNodes>
            0 -1 174 -3.0857091769576073e-03</internalNodes>
          <leafValues>
            4.6567076444625854e-01 -1.5832750499248505e-01</leafValues></_>
        <_>
          <internalNodes>
            0 -1 226 1.2058659456670284e-02</internalNodes>
          <leafValues>
            -1.3030752539634705e-01 4.7122684121131897e-01</leafValues></_>
        <_>
          <internalNodes>
            0 -1 191 2.3513732594437897e-04</internalNodes>
          <leafValues>
            1.7079269886016846e-01 -3.9853984117507935e-01</leafValues></_>
        <_>
          <internalNodes>
            0 -1 152 1.4027549885213375e-02</internalNodes>
          <leafValues>
            -1.3482004404067993e-01 5.1081615686416626e-01</leafValues></_>
        <_>
          <internalNodes>
            0 -1 221 -2.0713240373879671e-03</internalNodes>
          <leafValues>
            -6.6141480207443237e-01 1.0766169428825378e-01</leafValues></_></weakClassifiers></_></stages>
  <features>
    <_>
      <rects>
        <_>
          0 0 2 1 -1.</_>
        <_>
          1 0 1 1 2.</_></rects>
      <tilted>0</tilted></_>
    <_>
      <rects>
        <_>
          0 0 14 20 -1.</_>
        <_>
          7 0 7 20 2.</_></rects>
      <tilted>0</tilted></_>
    <_>
      <rects>
        <_>
          0 0 21 21 -1.</_>
        <_>
          7 0 7 21 3.</_></rects>
      <tilted>0</tilted></_>
    <_>
      <rects>
        <_>
          0 0 24 23 -1.</_>
        <_>
          8 0 8 23 3.</_></rects>
      <tilted>0</tilted></_>
    <_>
      <rects>
        <_>
          0 0 24 22 -1.</_>
        <_>
          12 0 12 22 2.</_></rects>
      <tilted>0</tilted></_>
    <_>
      <rects>
        <_>
          0 0 24 23 -1.</_>
        <_>
          12 0 12 23 2.</_></rects>
      <tilted>0</tilted></_>
    <_>
      <rects>
        <_>
          0 0 24 24 -1.</_>
        <_>
          12 0 12 24 2.</_></rects>
      <tilted>0</tilted></_>
    <_>
      <rects>
        <_>
          0 1 24 19 -1.</_>
        <_>
          8 1 8 19 3.</_></rects>
      <tilted>0</tilted></_>
    <_>
      <rects>
        <_>
          0 2 2 2 -1.</_>
        <_>
          0 3 2 1 2.</_></rects>
      <tilted>0</tilted></_>
    <_>
      <rects>
        <_>
          0 2 6 2 -1.</_>
        <_>
          0 2 3 1 2.</_>
        <_>
          3 3 3 1 2.</_></rects>
      <tilted>0</tilted></_>
    <_>
      <rects>
        <_>
          0 2 21 21 -1.</_>
        <_>
          7 2 7 21 3.</_></rects>
      <tilted>0</tilted></_>
    <_>
      <rects>
        <_>
          0 4 2 1 -1.</_>
        <_>
          1 4 1 1 2.</_></rects>
      <tilted>0</tilted></_>
    <_>
      <rects>
        <_>
          0 4 1 2 -1.</_>
        <_>
          0 5 1 1 2.</_></rects>
      <tilted>0</tilted></_>
    <_>
      <rects>
        <_>
          0 4 3 14 -1.</_>
        <_>
          1 4 1 14 3.</_></rects>
      <tilted>0</tilted></_>
    <_>
      <rects>
        <_>
          0 5 1 2 -1.</_>
        <_>
          0 6 1 1 2.</_></rects>
      <tilted>0</tilted></_>
    <_>
      <rects>
        <_>
          0 6 2 2 -1.</_>
        <_>
          0 6 1 1 2.</_>
        <_>
          1 7 1 1 2.</_></rects>
      <tilted>0</tilted></_>
    <_>
      <rects>
        <_>
          0 7 18 17 -1.</_>
        <_>
          6 7 6 17 3.</_></rects>
      <tilted>0</tilted></_>
    <_>
      <rects>
        <_>
          0 7 12 6 -1.</_>
        <_>
          0 9 12 2 3.</_></rects>
      <tilted>0</tilted></_>
    <_>
      <rects>
        <_>
          0 10 24 7 -1.</_>
        <_>
          8 10 8 7 3.</_></rects>
      <tilted>0</tilted></_>
    <_>
      <rects>
        <_>
          0 10 24 14 -1.</_>
        <_>
          12 10 12 14 2.</_></rects>
      <tilted>0</tilted></_>
    <_>
      <rects>
        <_>
          0 13 1 4 -1.</_>
        <_>
          0 15 1 2 2.</_></rects>
      <tilted>0</tilted></_>
    <_>
      <rects>
        <_>
          0 13 9 10 -1.</_>
        <_>
          3 13 3 10 3.</_></rects>
      <tilted>0</tilted></_>
    <_>
      <rects>
        <_>
          0 13 12 4 -1.</_>
        <_>
          4 13 4 4 3.</_></rects>
      <tilted>0</tilted></_>
    <_>
      <rects>
        <_>
          0 14 8 4 -1.</_>
        <_>
          0 14 4 2 2.</_>
        <_>
          4 16 4 2 2.</_></rects>
      <tilted>0</tilted></_>
    <_>
      <rects>
        <_>
          0 16 14 4 -1.</_>
        <_>
          7 16 7 4 2.</_></rects>
      <tilted>0</tilted></_>
    <_>
      <rects>
        <_>
          0 17 2 2 -1.</_>
        <_>
          0 18 2 1 2.</_></rects>
      <tilted>0</tilted></_>
    <_>
      <rects>
        <_>
          0 18 1 4 -1.</_>
        <_>
          0 20 1 2 2.</_></rects>
      <tilted>0</tilted></_>
    <_>
      <rects>
        <_>
          0 19 3 2 -1.</_>
        <_>
          0 20 3 1 2.</_></rects>
      <tilted>0</tilted></_>
    <_>
      <rects>
        <_>
          0 21 18 3 -1.</_>
        <_>
          0 22 18 1 3.</_></rects>
      <tilted>0</tilted></_>
    <_>
      <rects>
        <_>
          0 22 2 2 -1.</_>
        <_>
          0 22 1 1 2.</_>
        <_>
          1 23 1 1 2.</_></rects>
      <tilted>0</tilted></_>
    <_>
      <rects>
        <_>
          0 23 2 1 -1.</_>
        <_>
          1 23 1 1 2.</_></rects>
      <tilted>0</tilted></_>
    <_>
      <rects>
        <_>
          1 0 2 1 -1.</_>
        <_>
          2 0 1 1 2.</_></rects>
      <tilted>0</tilted></_>
    <_>
      <rects>
        <_>
          1 0 2 2 -1.</_>
        <_>
          1 0 1 1 2.</_>
        <_>
          2 1 1 1 2.</_></rects>
      <tilted>0</tilted></_>
    <_>
      <rects>
        <_>
          1 0 3 2 -1.</_>
        <_>
          2 0 1 2 3.</_></rects>
      <tilted>0</tilted></_>
    <_>
      <rects>
        <_>
          1 0 2 3 -1.</_>
        <_>
          2 0 1 3 2.</_></rects>
      <tilted>0</tilted></_>
    <_>
      <rects>
        <_>
          1 0 3 16 -1.</_>
        <_>
          2 0 1 16 3.</_></rects>
      <tilted>0</tilted></_>
    <_>
      <rects>
        <_>
          1 0 3 2 -1.</_>
        <_>
          1 1 3 1 2.</_></rects>
      <tilted>0</tilted></_>
    <_>
      <rects>
        <_>
          1 1 3 13 -1.</_>
        <_>
          2 1 1 13 3.</_></rects>
      <tilted>0</tilted></_>
    <_>
      <rects>
        <_>
          1 1 9 10 -1.</_>
        <_>
          4 1 3 10 3.</_></rects>
      <tilted>0</tilted></_>
    <_>
      <rects>
        <_>
          1 1 4 3 -1.</_>
        <_>
          1 2 4 1 3.</_></rects>
      <tilted>0</tilted></_>
    <_>
      <rects>
        <_>
          1 4 12 16 -1.</_>
        <_>
          5 4 4 16 3.</_></rects>
      <tilted>0</tilted></_>
    <_>
      <rects>
        <_>
          1 6 2 2 -1.</_>
        <_>
          1 6 1 1 2.</_>
        <_>
          2 7 1 1 2.</_></rects>
      <tilted>0</tilted></_>
    <_>
      <rects>
        <_>
          1 7 6 2 -1.</_>
        <_>
          1 7 3 1 2.</_>
        <_>
          4 8 3 1 2.</_></rects>
      <tilted>0</tilted></_>
    <_>
      <rects>
        <_>
          1 8 6 2 -1.</_>
        <_>
          1 8 3 1 2.</_>
        <_>
          4 9 3 1 2.</_></rects>
      <tilted>0</tilted></_>
    <_>
      <rects>
        <_>
          1 13 23 3 -1.</_>
        <_>
          1 14 23 1 3.</_></rects>
      <tilted>0</tilted></_>
    <_>
      <rects>
        <_>
          1 15 12 5 -1.</_>
        <_>
          5 15 4 5 3.</_></rects>
      <tilted>0</tilted></_>
    <_>
      <rects>
        <_>
          1 16 2 1 -1.</_>
        <_>
          2 16 1 1 2.</_></rects>
      <tilted>0</tilted></_>
    <_>
      <rects>
        <_>
          1 18 12 5 -1.</_>
        <_>
          5 18 4 5 3.</_></rects>
      <tilted>0</tilted></_>
    <_>
      <rects>
        <_>
          2 0 3 1 -1.</_>
        <_>
          3 0 1 1 3.</_></rects>
      <tilted>0</tilted></_>
    <_>
      <rects>
        <_>
          2 0 3 4 -1.</_>
        <_>
          3 0 1 4 3.</_></rects>
      <tilted>0</tilted></_>
    <_>
      <rects>
        <_>
          2 0 9 13 -1.</_>
        <_>
          5 0 3 13 3.</_></rects>
      <tilted>0</tilted></_>
    <_>
      <rects>
        <_>
          2 0 18 8 -1.</_>
        <_>
          2 4 18 4 2.</_></rects>
      <tilted>0</tilted></_>
    <_>
      <rects>
        <_>
          2 0 21 2 -1.</_>
        <_>
          2 1 21 1 2.</_></rects>
      <tilted>0</tilted></_>
    <_>
      <rects>
        <_>
          2 1 2 1 -1.</_>
        <_>
          3 1 1 1 2.</_></rects>
      <tilted>0</tilted></_>
    <_>
      <rects>
        <_>
          2 1 1 2 -1.</_>
        <_>
          2 2 1 1 2.</_></rects>
      <tilted>0</tilted></_>
    <_>
      <rects>
        <_>
          2 2 9 18 -1.</_>
        <_>
          5 2 3 18 3.</_></rects>
      <tilted>0</tilted></_>
    <_>
      <rects>
        <_>
          2 3 2 1 -1.</_>
        <_>
          3 3 1 1 2.</_></rects>
      <tilted>0</tilted></_>
    <_>
      <rects>
        <_>
          2 5 6 19 -1.</_>
        <_>
          4 5 2 19 3.</_></rects>
      <tilted>0</tilted></_>
    <_>
      <rects>
        <_>
          2 15 12 6 -1.</_>
        <_>
          2 15 6 3 2.</_>
        <_>
          8 18 6 3 2.</_></rects>
      <tilted>0</tilted></_>
    <_>
      <rects>
        <_>
          2 15 13 9 -1.</_>
        <_>
          2 18 13 3 3.</_></rects>
      <tilted>0</tilted></_>
    <_>
      <rects>
        <_>
          3 0 3 1 -1.</_>
        <_>
          4 0 1 1 3.</_></rects>
      <tilted>0</tilted></_>
    <_>
      <rects>
        <_>
          3 0 1 20 -1.</_>
        <_>
          3 10 1 10 2.</_></rects>
      <tilted>0</tilted></_>
    <_>
      <rects>
        <_>
          3 0 6 1 -1.</_>
        <_>
          5 0 2 1 3.</_></rects>
      <tilted>0</tilted></_>
    <_>
      <rects>
        <_>
          3 0 12 15 -1.</_>
        <_>
          3 5 12 5 3.</_></rects>
      <tilted>0</tilted></_>
    <_>
      <rects>
        <_>
          3 2 2 2 -1.</_>
        <_>
          3 2 1 1 2.</_>
        <_>
          4 3 1 1 2.</_></rects>
      <tilted>0</tilted></_>
    <_>
      <rects>
        <_>
          3 4 18 20 -1.</_>
        <_>
          9 4 6 20 3.</_></rects>
      <tilted>0</tilted></_>
    <_>
      <rects>
        <_>
          3 6 4 12 -1.</_>
        <_>
          5 6 2 12 2.</_></rects>
      <tilted>0</tilted></_>
    <_>
      <rects>
        <_>
          3 6 16 4 -1.</_>
        <_>
          3 6 8 2 2.</_>
        <_>
          11 8 8 2 2.</_></rects>
      <tilted>0</tilted></_>
    <_>
      <rects>
        <_>
          3 8 6 10 -1.</_>
        <_>
          5 8 2 10 3.</_></rects>
      <tilted>0</tilted></_>
    <_>
      <rects>
        <_>
          3 10 6 7 -1.</_>
        <_>
          5 10 2 7 3.</_></rects>
      <tilted>0</tilted></_>
    <_>
      <rects>
        <_>
          3 10 6 9 -1.</_>
        <_>
          5 10 2 9 3.</_></rects>
      <tilted>0</tilted></_>
    <_>
      <rects>
        <_>
          3 11 2 2 -1.</_>
        <_>
          3 11 1 1 2.</_>
        <_>
          4 12 1 1 2.</_></rects>
      <tilted>0</tilted></_>
    <_>
      <rects>
        <_>
          3 11 15 6 -1.</_>
        <_>
          3 13 15 2 3.</_></rects>
      <tilted>0</tilted></_>
    <_>
      <rects>
        <_>
          3 14 8 3 -1.</_>
        <_>
          3 15 8 1 3.</_></rects>
      <tilted>0</tilted></_>
    <_>
      <rects>
        <_>
          3 17 6 5 -1.</_>
        <_>
          5 17 2 5 3.</_></rects>
      <tilted>0</tilted></_>
    <_>
      <rects>
        <_>
          3 19 2 1 -1.</_>
        <_>
          4 19 1 1 2.</_></rects>
      <tilted>0</tilted></_>
    <_>
      <rects>
        <_>
          3 20 2 2 -1.</_>
        <_>
          3 20 1 1 2.</_>
        <_>
          4 21 1 1 2.</_></rects>
      <tilted>0</tilted></_>
    <_>
      <rects>
        <_>
          3 21 2 2 -1.</_>
        <_>
          4 21 1 2 2.</_></rects>
      <tilted>0</tilted></_>
    <_>
      <rects>
        <_>
          4 0 9 2 -1.</_>
        <_>
          7 0 3 2 3.</_></rects>
      <tilted>0</tilted></_>
    <_>
      <rects>
        <_>
          4 1 2 1 -1.</_>
        <_>
          5 1 1 1 2.</_></rects>
      <tilted>0</tilted></_>
    <_>
      <rects>
        <_>
          4 1 20 3 -1.</_>
        <_>
          4 2 20 1 3.</_></rects>
      <tilted>0</tilted></_>
    <_>
      <rects>
        <_>
          4 4 4 6 -1.</_>
        <_>
          6 4 2 6 2.</_></rects>
      <tilted>0</tilted></_>
    <_>
      <rects>
        <_>
          4 4 6 9 -1.</_>
        <_>
          6 4 2 9 3.</_></rects>
      <tilted>0</tilted></_>
    <_>
      <rects>
        <_>
          4 6 3 13 -1.</_>
        <_>
          5 6 1 13 3.</_></rects>
      <tilted>0</tilted></_>
    <_>
      <rects>
        <_>
          4 6 3 18 -1.</_>
        <_>
          5 6 1 18 3.</_></rects>
      <tilted>0</tilted></_>
    <_>
      <rects>
        <_>
          4 6 12 6 -1.</_>
        <_>
          4 6 6 3 2.</_>
        <_>
          10 9 6 3 2.</_></rects>
      <tilted>0</tilted></_>
    <_>
      <rects>
        <_>
          4 8 4 4 -1.</_>
        <_>
          4 8 2 2 2.</_>
        <_>
          6 10 2 2 2.</_></rects>
      <tilted>0</tilted></_>
    <_>
      <rects>
        <_>
          4 12 2 10 -1.</_>
        <_>
          4 12 1 5 2.</_>
        <_>
          5 17 1 5 2.</_></rects>
      <tilted>0</tilted></_>
    <_>
      <rects>
        <_>
          4 21 1 2 -1.</_>
        <_>
          4 22 1 1 2.</_></rects>
      <tilted>0</tilted></_>
    <_>
      <rects>
        <_>
          5 0 2 1 -1.</_>
        <_>
          6 0 1 1 2.</_></rects>
      <tilted>0</tilted></_>
    <_>
      <rects>
        <_>
          5 0 2 18 -1.</_>
        <_>
          5 9 2 9 2.</_></rects>
      <tilted>0</tilted></_>
    <_>
      <rects>
        <_>
          5 2 8 3 -1.</_>
        <_>
          5 3 8 1 3.</_></rects>
      <tilted>0</tilted></_>
    <_>
      <rects>
        <_>
          5 3 14 14 -1.</_>
        <_>
          5 3 7 7 2.</_>
        <_>
          12 10 7 7 2.</_></rects>
      <tilted>0</tilted></_>
    <_>
      <rects>
        <_>
          5 6 12 2 -1.</_>
        <_>
          9 6 4 2 3.</_></rects>
      <tilted>0</tilted></_>
    <_>
      <rects>
        <_>
          5 7 3 3 -1.</_>
        <_>
          6 7 1 3 3.</_></rects>
      <tilted>0</tilted></_>
    <_>
      <rects>
        <_>
          5 8 3 5 -1.</_>
        <_>
          6 8 1 5 3.</_></rects>
      <tilted>0</tilted></_>
    <_>
      <rects>
        <_>
          5 8 2 6 -1.</_>
        <_>
          5 11 2 3 2.</_></rects>
      <tilted>0</tilted></_>
    <_>
      <rects>
        <_>
          5 13 8 3 -1.</_>
        <_>
          5 14 8 1 3.</_></rects>
      <tilted>0</tilted></_>
    <_>
      <rects>
        <_>
          5 15 9 3 -1.</_>
        <_>
          5 16 9 1 3.</_></rects>
      <tilted>0</tilted></_>
    <_>
      <rects>
        <_>
          6 0 5 8 -1.</_>
        <_>
          6 4 5 4 2.</_></rects>
      <tilted>0</tilted></_>
    <_>
      <rects>
        <_>
          6 2 4 3 -1.</_>
        <_>
          6 3 4 1 3.</_></rects>
      <tilted>0</tilted></_>
    <_>
      <rects>
        <_>
          6 2 15 3 -1.</_>
        <_>
          6 3 15 1 3.</_></rects>
      <tilted>0</tilted></_>
    <_>
      <rects>
        <_>
          6 6 7 3 -1.</_>
        <_>
          6 7 7 1 3.</_></rects>
      <tilted>0</tilted></_>
    <_>
      <rects>
        <_>
          6 10 14 2 -1.</_>
        <_>
          6 11 14 1 2.</_></rects>
      <tilted>0</tilted></_>
    <_>
      <rects>
        <_>
          6 11 2 2 -1.</_>
        <_>
          6 11 1 1 2.</_>
        <_>
          7 12 1 1 2.</_></rects>
      <tilted>0</tilted></_>
    <_>
      <rects>
        <_>
          6 12 6 2 -1.</_>
        <_>
          8 12 2 2 3.</_></rects>
      <tilted>0</tilted></_>
    <_>
      <rects>
        <_>
          6 15 3 1 -1.</_>
        <_>
          7 15 1 1 3.</_></rects>
      <tilted>0</tilted></_>
    <_>
      <rects>
        <_>
          6 18 6 6 -1.</_>
        <_>
          6 20 6 2 3.</_></rects>
      <tilted>0</tilted></_>
    <_>
      <rects>
        <_>
          7 0 3 21 -1.</_>
        <_>
          8 0 1 21 3.</_></rects>
      <tilted>0</tilted></_>
    <_>
      <rects>
        <_>
          7 0 2 2 -1.</_>
        <_>
          7 1 2 1 2.</_></rects>
      <tilted>0</tilted></_>
    <_>
      <rects>
        <_>
          7 0 10 1 -1.</_>
        <_>
          12 0 5 1 2.</_></rects>
      <tilted>0</tilted></_>
    <_>
      <rects>
        <_>
          7 0 6 6 -1.</_>
        <_>
          7 3 6 3 2.</_></rects>
      <tilted>0</tilted></_>
    <_>
      <rects>
        <_>
          7 0 12 2 -1.</_>
        <_>
          7 1 12 1 2.</_></rects>
      <tilted>0</tilted></_>
    <_>
      <rects>
        <_>
          7 4 3 4 -1.</_>
        <_>
          8 4 1 4 3.</_></rects>
      <tilted>0</tilted></_>
    <_>
      <rects>
        <_>
          7 5 9 3 -1.</_>
        <_>
          10 5 3 3 3.</_></rects>
      <tilted>0</tilted></_>
    <_>
      <rects>
        <_>
          7 6 3 9 -1.</_>
        <_>
          8 6 1 9 3.</_></rects>
      <tilted>0</tilted></_>
    <_>
      <rects>
        <_>
          7 6 15 17 -1.</_>
        <_>
          12 6 5 17 3.</_></rects>
      <tilted>0</tilted></_>
    <_>
      <rects>
        <_>
          7 7 3 8 -1.</_>
        <_>
          8 7 1 8 3.</_></rects>
      <tilted>0</tilted></_>
    <_>
      <rects>
        <_>
          7 12 12 9 -1.</_>
        <_>
          11 12 4 9 3.</_></rects>
      <tilted>0</tilted></_>
    <_>
      <rects>
        <_>
          7 13 3 2 -1.</_>
        <_>
          8 13 1 2 3.</_></rects>
      <tilted>0</tilted></_>
    <_>
      <rects>
        <_>
          8 0 4 1 -1.</_>
        <_>
          10 0 2 1 2.</_></rects>
      <tilted>0</tilted></_>
    <_>
      <rects>
        <_>
          8 1 8 2 -1.</_>
        <_>
          8 2 8 1 2.</_></rects>
      <tilted>0</tilted></_>
    <_>
      <rects>
        <_>
          8 1 15 22 -1.</_>
        <_>
          8 12 15 11 2.</_></rects>
      <tilted>0</tilted></_>
    <_>
      <rects>
        <_>
          8 4 2 6 -1.</_>
        <_>
          8 6 2 2 3.</_></rects>
      <tilted>0</tilted></_>
    <_>
      <rects>
        <_>
          8 7 12 3 -1.</_>
        <_>
          8 8 12 1 3.</_></rects>
      <tilted>0</tilted></_>
    <_>
      <rects>
        <_>
          8 9 3 8 -1.</_>
        <_>
          9 9 1 8 3.</_></rects>
      <tilted>0</tilted></_>
    <_>
      <rects>
        <_>
          8 14 2 2 -1.</_>
        <_>
          8 14 1 1 2.</_>
        <_>
          9 15 1 1 2.</_></rects>
      <tilted>0</tilted></_>
    <_>
      <rects>
        <_>
          8 14 4 3 -1.</_>
        <_>
          8 15 4 1 3.</_></rects>
      <tilted>0</tilted></_>
    <_>
      <rects>
        <_>
          8 17 8 4 -1.</_>
        <_>
          8 17 4 2 2.</_>
        <_>
          12 19 4 2 2.</_></rects>
      <tilted>0</tilted></_>
    <_>
      <rects>
        <_>
          8 18 2 2 -1.</_>
        <_>
          8 18 1 1 2.</_>
        <_>
          9 19 1 1 2.</_></rects>
      <tilted>0</tilted></_>
    <_>
      <rects>
        <_>
          8 20 2 1 -1.</_>
        <_>
          9 20 1 1 2.</_></rects>
      <tilted>0</tilted></_>
    <_>
      <rects>
        <_>
          8 23 9 1 -1.</_>
        <_>
          11 23 3 1 3.</_></rects>
      <tilted>0</tilted></_>
    <_>
      <rects>
        <_>
          9 0 3 1 -1.</_>
        <_>
          10 0 1 1 3.</_></rects>
      <tilted>0</tilted></_>
    <_>
      <rects>
        <_>
          9 2 3 3 -1.</_>
        <_>
          9 3 3 1 3.</_></rects>
      <tilted>0</tilted></_>
    <_>
      <rects>
        <_>
          9 2 15 19 -1.</_>
        <_>
          14 2 5 19 3.</_></rects>
      <tilted>0</tilted></_>
    <_>
      <rects>
        <_>
          9 3 6 14 -1.</_>
        <_>
          11 3 2 14 3.</_></rects>
      <tilted>0</tilted></_>
    <_>
      <rects>
        <_>
          9 4 3 3 -1.</_>
        <_>
          9 5 3 1 3.</_></rects>
      <tilted>0</tilted></_>
    <_>
      <rects>
        <_>
          9 5 3 8 -1.</_>
        <_>
          10 5 1 8 3.</_></rects>
      <tilted>0</tilted></_>
    <_>
      <rects>
        <_>
          9 6 6 5 -1.</_>
        <_>
          11 6 2 5 3.</_></rects>
      <tilted>0</tilted></_>
    <_>
      <rects>
        <_>
          9 8 1 3 -1.</_>
        <_>
          9 9 1 1 3.</_></rects>
      <tilted>0</tilted></_>
    <_>
      <rects>
        <_>
          9 8 2 2 -1.</_>
        <_>
          9 8 1 1 2.</_>
        <_>
          10 9 1 1 2.</_></rects>
      <tilted>0</tilted></_>
    <_>
      <rects>
        <_>
          9 8 4 6 -1.</_>
        <_>
          11 8 2 6 2.</_></rects>
      <tilted>0</tilted></_>
    <_>
      <rects>
        <_>
          9 9 4 3 -1.</_>
        <_>
          9 10 4 1 3.</_></rects>
      <tilted>0</tilted></_>
    <_>
      <rects>
        <_>
          9 14 1 2 -1.</_>
        <_>
          9 15 1 1 2.</_></rects>
      <tilted>0</tilted></_>
    <_>
      <rects>
        <_>
          10 0 3 24 -1.</_>
        <_>
          11 0 1 24 3.</_></rects>
      <tilted>0</tilted></_>
    <_>
      <rects>
        <_>
          10 1 9 17 -1.</_>
        <_>
          13 1 3 17 3.</_></rects>
      <tilted>0</tilted></_>
    <_>
      <rects>
        <_>
          10 1 9 3 -1.</_>
        <_>
          10 2 9 1 3.</_></rects>
      <tilted>0</tilted></_>
    <_>
      <rects>
        <_>
          10 2 13 9 -1.</_>
        <_>
          10 5 13 3 3.</_></rects>
      <tilted>0</tilted></_>
    <_>
      <rects>
        <_>
          10 8 9 11 -1.</_>
        <_>
          13 8 3 11 3.</_></rects>
      <tilted>0</tilted></_>
    <_>
      <rects>
        <_>
          10 9 9 14 -1.</_>
        <_>
          13 9 3 14 3.</_></rects>
      <tilted>0</tilted></_>
    <_>
      <rects>
        <_>
          10 10 8 14 -1.</_>
        <_>
          10 17 8 7 2.</_></rects>
      <tilted>0</tilted></_>
    <_>
      <rects>
        <_>
          10 14 2 1 -1.</_>
        <_>
          11 14 1 1 2.</_></rects>
      <tilted>0</tilted></_>
    <_>
      <rects>
        <_>
          10 16 4 6 -1.</_>
        <_>
          10 18 4 2 3.</_></rects>
      <tilted>0</tilted></_>
    <_>
      <rects>
        <_>
          11 0 3 1 -1.</_>
        <_>
          12 0 1 1 3.</_></rects>
      <tilted>0</tilted></_>
    <_>
      <rects>
        <_>
          11 0 4 1 -1.</_>
        <_>
          13 0 2 1 2.</_></rects>
      <tilted>0</tilted></_>
    <_>
      <rects>
        <_>
          11 3 6 3 -1.</_>
        <_>
          13 3 2 3 3.</_></rects>
      <tilted>0</tilted></_>
    <_>
      <rects>
        <_>
          11 5 9 11 -1.</_>
        <_>
          14 5 3 11 3.</_></rects>
      <tilted>0</tilted></_>
    <_>
      <rects>
        <_>
          11 8 3 14 -1.</_>
        <_>
          12 8 1 14 3.</_></rects>
      <tilted>0</tilted></_>
    <_>
      <rects>
        <_>
          11 9 2 6 -1.</_>
        <_>
          11 9 1 3 2.</_>
        <_>
          12 12 1 3 2.</_></rects>
      <tilted>0</tilted></_>
    <_>
      <rects>
        <_>
          11 11 9 9 -1.</_>
        <_>
          11 14 9 3 3.</_></rects>
      <tilted>0</tilted></_>
    <_>
      <rects>
        <_>
          12 0 3 11 -1.</_>
        <_>
          13 0 1 11 3.</_></rects>
      <tilted>0</tilted></_>
    <_>
      <rects>
        <_>
          12 0 2 4 -1.</_>
        <_>
          12 2 2 2 2.</_></rects>
      <tilted>0</tilted></_>
    <_>
      <rects>
        <_>
          12 0 6 24 -1.</_>
        <_>
          14 0 2 24 3.</_></rects>
      <tilted>0</tilted></_>
    <_>
      <rects>
        <_>
          12 1 9 18 -1.</_>
        <_>
          15 1 3 18 3.</_></rects>
      <tilted>0</tilted></_>
    <_>
      <rects>
        <_>
          12 3 10 3 -1.</_>
        <_>
          12 4 10 1 3.</_></rects>
      <tilted>0</tilted></_>
    <_>
      <rects>
        <_>
          12 4 1 3 -1.</_>
        <_>
          12 5 1 1 3.</_></rects>
      <tilted>0</tilted></_>
    <_>
      <rects>
        <_>
          12 5 2 2 -1.</_>
        <_>
          12 5 1 1 2.</_>
        <_>
          13 6 1 1 2.</_></rects>
      <tilted>0</tilted></_>
    <_>
      <rects>
        <_>
          12 6 9 3 -1.</_>
        <_>
          12 7 9 1 3.</_></rects>
      <tilted>0</tilted></_>
    <_>
      <rects>
        <_>
          12 22 6 2 -1.</_>
        <_>
          15 22 3 2 2.</_></rects>
      <tilted>0</tilted></_>
    <_>
      <rects>
        <_>
          13 2 4 14 -1.</_>
        <_>
          13 2 2 7 2.</_>
        <_>
          15 9 2 7 2.</_></rects>
      <tilted>0</tilted></_>
    <_>
      <rects>
        <_>
          13 5 6 19 -1.</_>
        <_>
          15 5 2 19 3.</_></rects>
      <tilted>0</tilted></_>
    <_>
      <rects>
        <_>
          13 8 2 1 -1.</_>
        <_>
          14 8 1 1 2.</_></rects>
      <tilted>0</tilted></_>
    <_>
      <rects>
        <_>
          13 8 2 2 -1.</_>
        <_>
          13 8 1 1 2.</_>
        <_>
          14 9 1 1 2.</_></rects>
      <tilted>0</tilted></_>
    <_>
      <rects>
        <_>
          13 11 3 6 -1.</_>
        <_>
          14 11 1 6 3.</_></rects>
      <tilted>0</tilted></_>
    <_>
      <rects>
        <_>
          13 13 5 3 -1.</_>
        <_>
          13 14 5 1 3.</_></rects>
      <tilted>0</tilted></_>
    <_>
      <rects>
        <_>
          14 2 2 12 -1.</_>
        <_>
          14 2 1 6 2.</_>
        <_>
          15 8 1 6 2.</_></rects>
      <tilted>0</tilted></_>
    <_>
      <rects>
        <_>
          14 3 9 8 -1.</_>
        <_>
          17 3 3 8 3.</_></rects>
      <tilted>0</tilted></_>
    <_>
      <rects>
        <_>
          14 4 2 10 -1.</_>
        <_>
          14 4 1 5 2.</_>
        <_>
          15 9 1 5 2.</_></rects>
      <tilted>0</tilted></_>
    <_>
      <rects>
        <_>
          14 4 3 12 -1.</_>
        <_>
          15 4 1 12 3.</_></rects>
      <tilted>0</tilted></_>
    <_>
      <rects>
        <_>
          14 7 9 2 -1.</_>
        <_>
          17 7 3 2 3.</_></rects>
      <tilted>0</tilted></_>
    <_>
      <rects>
        <_>
          14 8 3 5 -1.</_>
        <_>
          15 8 1 5 3.</_></rects>
      <tilted>0</tilted></_>
    <_>
      <rects>
        <_>
          14 11 2 4 -1.</_>
        <_>
          14 11 1 2 2.</_>
        <_>
          15 13 1 2 2.</_></rects>
      <tilted>0</tilted></_>
    <_>
      <rects>
        <_>
          14 13 10 3 -1.</_>
        <_>
          14 14 10 1 3.</_></rects>
      <tilted>0</tilted></_>
    <_>
      <rects>
        <_>
          14 17 2 1 -1.</_>
        <_>
          15 17 1 1 2.</_></rects>
      <tilted>0</tilted></_>
    <_>
      <rects>
        <_>
          15 0 9 1 -1.</_>
        <_>
          18 0 3 1 3.</_></rects>
      <tilted>0</tilted></_>
    <_>
      <rects>
        <_>
          15 5 9 13 -1.</_>
        <_>
          18 5 3 13 3.</_></rects>
      <tilted>0</tilted></_>
    <_>
      <rects>
        <_>
          15 8 9 13 -1.</_>
        <_>
          18 8 3 13 3.</_></rects>
      <tilted>0</tilted></_>
    <_>
      <rects>
        <_>
          15 9 3 2 -1.</_>
        <_>
          15 10 3 1 2.</_></rects>
      <tilted>0</tilted></_>
    <_>
      <rects>
        <_>
          15 9 9 6 -1.</_>
        <_>
          18 9 3 6 3.</_></rects>
      <tilted>0</tilted></_>
    <_>
      <rects>
        <_>
          15 15 9 9 -1.</_>
        <_>
          15 18 9 3 3.</_></rects>
      <tilted>0</tilted></_>
    <_>
      <rects>
        <_>
          15 22 4 2 -1.</_>
        <_>
          17 22 2 2 2.</_></rects>
      <tilted>0</tilted></_>
    <_>
      <rects>
        <_>
          16 0 2 1 -1.</_>
        <_>
          17 0 1 1 2.</_></rects>
      <tilted>0</tilted></_>
    <_>
      <rects>
        <_>
          16 0 6 1 -1.</_>
        <_>
          18 0 2 1 3.</_></rects>
      <tilted>0</tilted></_>
    <_>
      <rects>
        <_>
          16 3 1 2 -1.</_>
        <_>
          16 4 1 1 2.</_></rects>
      <tilted>0</tilted></_>
    <_>
      <rects>
        <_>
          16 4 3 11 -1.</_>
        <_>
          17 4 1 11 3.</_></rects>
      <tilted>0</tilted></_>
    <_>
      <rects>
        <_>
          16 4 6 6 -1.</_>
        <_>
          18 4 2 6 3.</_></rects>
      <tilted>0</tilted></_>
    <_>
      <rects>
        <_>
          16 4 4 10 -1.</_>
        <_>
          18 4 2 10 2.</_></rects>
      <tilted>0</tilted></_>
    <_>
      <rects>
        <_>
          16 6 3 1 -1.</_>
        <_>
          17 6 1 1 3.</_></rects>
      <tilted>0</tilted></_>
    <_>
      <rects>
        <_>
          16 8 3 3 -1.</_>
        <_>
          17 8 1 3 3.</_></rects>
      <tilted>0</tilted></_>
    <_>
      <rects>
        <_>
          16 10 3 10 -1.</_>
        <_>
          17 10 1 10 3.</_></rects>
      <tilted>0</tilted></_>
    <_>
      <rects>
        <_>
          16 17 8 6 -1.</_>
        <_>
          16 19 8 2 3.</_></rects>
      <tilted>0</tilted></_>
    <_>
      <rects>
        <_>
          16 21 2 2 -1.</_>
        <_>
          17 21 1 2 2.</_></rects>
      <tilted>0</tilted></_>
    <_>
      <rects>
        <_>
          17 0 2 2 -1.</_>
        <_>
          18 0 1 2 2.</_></rects>
      <tilted>0</tilted></_>
    <_>
      <rects>
        <_>
          17 0 6 1 -1.</_>
        <_>
          19 0 2 1 3.</_></rects>
      <tilted>0</tilted></_>
    <_>
      <rects>
        <_>
          17 15 7 8 -1.</_>
        <_>
          17 19 7 4 2.</_></rects>
      <tilted>0</tilted></_>
    <_>
      <rects>
        <_>
          18 0 3 1 -1.</_>
        <_>
          19 0 1 1 3.</_></rects>
      <tilted>0</tilted></_>
    <_>
      <rects>
        <_>
          18 1 1 4 -1.</_>
        <_>
          18 3 1 2 2.</_></rects>
      <tilted>0</tilted></_>
    <_>
      <rects>
        <_>
          18 2 1 2 -1.</_>
        <_>
          18 3 1 1 2.</_></rects>
      <tilted>0</tilted></_>
    <_>
      <rects>
        <_>
          18 5 3 6 -1.</_>
        <_>
          19 5 1 6 3.</_></rects>
      <tilted>0</tilted></_>
    <_>
      <rects>
        <_>
          18 14 1 2 -1.</_>
        <_>
          18 15 1 1 2.</_></rects>
      <tilted>0</tilted></_>
    <_>
      <rects>
        <_>
          18 17 3 1 -1.</_>
        <_>
          19 17 1 1 3.</_></rects>
      <tilted>0</tilted></_>
    <_>
      <rects>
        <_>
          18 21 2 1 -1.</_>
        <_>
          19 21 1 1 2.</_></rects>
      <tilted>0</tilted></_>
    <_>
      <rects>
        <_>
          18 22 2 2 -1.</_>
        <_>
          18 22 1 1 2.</_>
        <_>
          19 23 1 1 2.</_></rects>
      <tilted>0</tilted></_>
    <_>
      <rects>
        <_>
          19 0 3 1 -1.</_>
        <_>
          20 0 1 1 3.</_></rects>
      <tilted>0</tilted></_>
    <_>
      <rects>
        <_>
          19 3 4 16 -1.</_>
        <_>
          19 3 2 8 2.</_>
        <_>
          21 11 2 8 2.</_></rects>
      <tilted>0</tilted></_>
    <_>
      <rects>
        <_>
          19 12 2 1 -1.</_>
        <_>
          20 12 1 1 2.</_></rects>
      <tilted>0</tilted></_>
    <_>
      <rects>
        <_>
          19 15 3 6 -1.</_>
        <_>
          20 15 1 6 3.</_></rects>
      <tilted>0</tilted></_>
    <_>
      <rects>
        <_>
          19 15 2 6 -1.</_>
        <_>
          19 17 2 2 3.</_></rects>
      <tilted>0</tilted></_>
    <_>
      <rects>
        <_>
          19 18 1 2 -1.</_>
        <_>
          19 19 1 1 2.</_></rects>
      <tilted>0</tilted></_>
    <_>
      <rects>
        <_>
          19 18 3 6 -1.</_>
        <_>
          19 20 3 2 3.</_></rects>
      <tilted>0</tilted></_>
    <_>
      <rects>
        <_>
          19 23 3 1 -1.</_>
        <_>
          20 23 1 1 3.</_></rects>
      <tilted>0</tilted></_>
    <_>
      <rects>
        <_>
          20 2 2 2 -1.</_>
        <_>
          21 2 1 2 2.</_></rects>
      <tilted>0</tilted></_>
    <_>
      <rects>
        <_>
          20 2 2 4 -1.</_>
        <_>
          20 2 1 2 2.</_>
        <_>
          21 4 1 2 2.</_></rects>
      <tilted>0</tilted></_>
    <_>
      <rects>
        <_>
          20 3 4 16 -1.</_>
        <_>
          20 3 2 8 2.</_>
        <_>
          22 11 2 8 2.</_></rects>
      <tilted>0</tilted></_>
    <_>
      <rects>
        <_>
          20 4 4 13 -1.</_>
        <_>
          22 4 2 13 2.</_></rects>
      <tilted>0</tilted></_>
    <_>
      <rects>
        <_>
          20 10 2 2 -1.</_>
        <_>
          20 10 1 1 2.</_>
        <_>
          21 11 1 1 2.</_></rects>
      <tilted>0</tilted></_>
    <_>
      <rects>
        <_>
          20 11 3 9 -1.</_>
        <_>
          20 14 3 3 3.</_></rects>
      <tilted>0</tilted></_>
    <_>
      <rects>
        <_>
          20 12 4 3 -1.</_>
        <_>
          20 13 4 1 3.</_></rects>
      <tilted>0</tilted></_>
    <_>
      <rects>
        <_>
          20 15 4 6 -1.</_>
        <_>
          20 17 4 2 3.</_></rects>
      <tilted>0</tilted></_>
    <_>
      <rects>
        <_>
          21 0 2 24 -1.</_>
        <_>
          22 0 1 24 2.</_></rects>
      <tilted>0</tilted></_>
    <_>
      <rects>
        <_>
          21 1 1 3 -1.</_>
        <_>
          21 2 1 1 3.</_></rects>
      <tilted>0</tilted></_>
    <_>
      <rects>
        <_>
          21 13 3 9 -1.</_>
        <_>
          22 13 1 9 3.</_></rects>
      <tilted>0</tilted></_>
    <_>
      <rects>
        <_>
          21 14 3 2 -1.</_>
        <_>
          21 15 3 1 2.</_></rects>
      <tilted>0</tilted></_>
    <_>
      <rects>
        <_>
          21 18 2 2 -1.</_>
        <_>
          21 19 2 1 2.</_></rects>
      <tilted>0</tilted></_>
    <_>
      <rects>
        <_>
          22 0 1 2 -1.</_>
        <_>
          22 1 1 1 2.</_></rects>
      <tilted>0</tilted></_>
    <_>
      <rects>
        <_>
          22 0 2 2 -1.</_>
        <_>
          22 0 1 1 2.</_>
        <_>
          23 1 1 1 2.</_></rects>
      <tilted>0</tilted></_>
    <_>
      <rects>
        <_>
          22 0 1 4 -1.</_>
        <_>
          22 2 1 2 2.</_></rects>
      <tilted>0</tilted></_>
    <_>
      <rects>
        <_>
          22 1 2 1 -1.</_>
        <_>
          23 1 1 1 2.</_></rects>
      <tilted>0</tilted></_>
    <_>
      <rects>
        <_>
          22 6 1 2 -1.</_>
        <_>
          22 7 1 1 2.</_></rects>
      <tilted>0</tilted></_>
    <_>
      <rects>
        <_>
          22 13 1 3 -1.</_>
        <_>
          22 14 1 1 3.</_></rects>
      <tilted>0</tilted></_>
    <_>
      <rects>
        <_>
          22 19 2 1 -1.</_>
        <_>
          23 19 1 1 2.</_></rects>
      <tilted>0</tilted></_>
    <_>
      <rects>
        <_>
          23 7 1 12 -1.</_>
        <_>
          23 11 1 4 3.</_></rects>
      <tilted>0</tilted></_></features></cascade>
</opencv_storage>
